\data\
ngram 1=36







\1-grams:
-1 </s> -0.3
-1 <s> -0.25
-1 a -0.25
-1 b -0.25
-1 c -0.25
-1 d -0.25
-1 e -0.25
-1 f -0.25
-1 g -0.25
-1 h -0.25
-1 1 -0.25
-1 2 -0.25
-1 3 -0.25
-1 4 -0.25
-1 5 -0.25
-1 6 -0.25
-1 7 -0.25
-1 8 -0.25
-1 select -0.25
-1 move -0.25
-1 moveTo -0.25
-1 a2 -0.25
-1 g6 -0.25
-1 confirm -0.25
-1 yes -0.25
-1 no -0.25
-1 b4 -0.25
-1 a5 -0.25
-1 a4 -0.25
-1 f3 -0.25
-1 z -0.25
-1 newgame -0.25
-1 exit -0.25
-1 the -0.25
-1 game -0.25
-1 exitgame -0.25


\end\